digraph Tree {
node [shape=box] ;
0 [label="X[10] <= -0.5206\ngini = 0.4987\nsamples = 156\nvalue = [82, 74]"] ;
1 [label="X[3] <= -0.7508\ngini = 0.3512\nsamples = 66\nvalue = [15, 51]"] ;
0 -> 1 [labeldistance=2.5, labelangle=45, headlabel="True"] ;
2 [label="X[18] <= 0.7498\ngini = 0.1975\nsamples = 54\nvalue = [6, 48]"] ;
1 -> 2 ;
3 [label="X[48] <= -0.1716\ngini = 0.1107\nsamples = 51\nvalue = [3, 48]"] ;
2 -> 3 ;
4 [label="X[27] <= -0.7375\ngini = 0.0408\nsamples = 48\nvalue = [1, 47]"] ;
3 -> 4 ;
5 [label="gini = 0.0\nsamples = 1\nvalue = [1, 0]"] ;
4 -> 5 ;
6 [label="gini = 0.0\nsamples = 47\nvalue = [0, 47]"] ;
4 -> 6 ;
7 [label="X[58] <= -0.0331\ngini = 0.4444\nsamples = 3\nvalue = [2, 1]"] ;
3 -> 7 ;
8 [label="gini = 0.0\nsamples = 2\nvalue = [2, 0]"] ;
7 -> 8 ;
9 [label="gini = 0.0\nsamples = 1\nvalue = [0, 1]"] ;
7 -> 9 ;
10 [label="gini = 0.0\nsamples = 3\nvalue = [3, 0]"] ;
2 -> 10 ;
11 [label="X[49] <= -0.8158\ngini = 0.375\nsamples = 12\nvalue = [9, 3]"] ;
1 -> 11 ;
12 [label="gini = 0.0\nsamples = 3\nvalue = [0, 3]"] ;
11 -> 12 ;
13 [label="gini = 0.0\nsamples = 9\nvalue = [9, 0]"] ;
11 -> 13 ;
14 [label="X[26] <= 0.6157\ngini = 0.3805\nsamples = 90\nvalue = [67, 23]"] ;
0 -> 14 [labeldistance=2.5, labelangle=-45, headlabel="False"] ;
15 [label="X[50] <= -0.7291\ngini = 0.4965\nsamples = 48\nvalue = [26, 22]"] ;
14 -> 15 ;
16 [label="X[52] <= -0.1532\ngini = 0.375\nsamples = 20\nvalue = [5, 15]"] ;
15 -> 16 ;
17 [label="X[7] <= -0.6673\ngini = 0.2188\nsamples = 16\nvalue = [2, 14]"] ;
16 -> 17 ;
18 [label="X[0] <= -0.8518\ngini = 0.4444\nsamples = 3\nvalue = [2, 1]"] ;
17 -> 18 ;
19 [label="gini = 0.0\nsamples = 1\nvalue = [0, 1]"] ;
18 -> 19 ;
20 [label="gini = 0.0\nsamples = 2\nvalue = [2, 0]"] ;
18 -> 20 ;
21 [label="gini = 0.0\nsamples = 13\nvalue = [0, 13]"] ;
17 -> 21 ;
22 [label="X[4] <= -0.7606\ngini = 0.375\nsamples = 4\nvalue = [3, 1]"] ;
16 -> 22 ;
23 [label="gini = 0.0\nsamples = 1\nvalue = [0, 1]"] ;
22 -> 23 ;
24 [label="gini = 0.0\nsamples = 3\nvalue = [3, 0]"] ;
22 -> 24 ;
25 [label="X[20] <= -0.0187\ngini = 0.375\nsamples = 28\nvalue = [21, 7]"] ;
15 -> 25 ;
26 [label="gini = 0.0\nsamples = 5\nvalue = [0, 5]"] ;
25 -> 26 ;
27 [label="X[31] <= -0.8941\ngini = 0.1588\nsamples = 23\nvalue = [21, 2]"] ;
25 -> 27 ;
28 [label="gini = 0.0\nsamples = 2\nvalue = [0, 2]"] ;
27 -> 28 ;
29 [label="gini = 0.0\nsamples = 21\nvalue = [21, 0]"] ;
27 -> 29 ;
30 [label="X[33] <= 0.6311\ngini = 0.0465\nsamples = 42\nvalue = [41, 1]"] ;
14 -> 30 ;
31 [label="gini = 0.0\nsamples = 41\nvalue = [41, 0]"] ;
30 -> 31 ;
32 [label="gini = 0.0\nsamples = 1\nvalue = [0, 1]"] ;
30 -> 32 ;
}